{"cnn1_filters": [[[[-0.14026348914599251, -0.04777149563974547, -0.14017175823692818], [-0.08130085048902792, -0.11451742969245048, 0.15955393430070244], [-0.007884320198497555, -0.00706465937491661, -0.09810583263043936]]], [[[-0.18851707679611515, 0.0577102401812472, 0.3760585413203685], [-0.114795039716353, 0.2641110803522179, 0.21552448787013412], [0.044612917950029474, 0.21250347618750937, 0.010675877148315971]]], [[[0.07191504855539392, -0.10720062979615141, -0.007452488551181906], [-0.21159133282861148, 0.13256132787247976, -0.12489587558564934], [-0.007589438373628811, -0.05606068578948991, -0.10392486302517188]]], [[[0.12902824286653913, 0.1753470003410675, 0.32490996726781174], [0.30082697633620065, 0.1526443802026531, 0.23575895604536282], [-0.20859095719794346, -0.0672492739599726, 0.043939753851185696]]]], "cnn1_biases": [-0.03457252690126764, -0.0024253708852618613, 0.0483525371317186, 0.001986976118259959], "cnn2_filters": [[[[0.031373769921513785, -0.0935865333525457, -0.15854701311054173], [0.02148378377594887, 0.052393269195083414, -0.08110195483398161], [-0.1250368137142895, 0.03731880699418142, -0.05175701458189432]], [[-0.13562912120989154, -0.011858048046631977, -0.08384824053819889], [0.09603013225338553, 0.15541447700644254, 0.2552045774109622], [0.054556061340217024, -0.0022857911100897643, 0.15341048396527976]], [[0.0396448303442842, 0.04438087788802539, -0.10695071067180577], [0.12575208120844186, 0.0030300094033563537, -0.06151372083741007], [0.02481479739553176, -0.0742111205515637, -0.10347565642016412]], [[-0.07770176234667014, -0.034005136124963774, -0.18100963367603684], [0.04390740711533716, 0.14776102827822166, 0.14027315475979518], [-0.15766549417734807, -0.03371203023070906, -0.09362557052937391]]], [[[-0.022078351075636236, -0.10933747550109556, 0.021038191641733886], [0.12367006931037744, 0.050623858676273024, -0.012447529448097192], [-0.007474384176213516, -0.023634028004796095, -0.035839532487227446]], [[-0.062102369190849604, 0.056758590419114796, 0.2625021466396029], [-0.2231901952721085, -0.09003007241008659, 0.041786788093294086], [-0.08977361339369569, -0.030771994852141347, 0.2979693030756031]], [[0.027655644805608868, 0.01725856035039065, -0.01948402843889169], [-0.15235259663434333, -0.030414134294230392, -0.07759604356490017], [-0.014094865223254907, 0.19120438626232894, -0.11524001238995026]], [[0.019622422874234026, 0.1572172892132899, 0.07223020312724711], [-0.08111395345953618, -0.11151035634047309, 0.11493847320227091], [-0.031069121595630047, -0.057109798732059014, 0.19539635638010572]]], [[[-0.006530667456133568, -0.14183211542069654, -0.07077244295496661], [-0.07833141154509744, -0.06760842002641129, 0.0553743196347125], [-0.0884892227387183, -0.014182082465776296, 0.057090857141297885]], [[-0.0020895725987369455, -0.09182919060362839, 0.061691507990461275], [-0.10808169286771742, 0.08602415682779142, -0.038495245628713724], [-0.06470239073465688, 0.05360308140179222, 0.09510070973098733]], [[0.04852937909157134, 0.039280691091087665, 0.040789950536550136], [0.06793724560441763, -0.04559155909917841, 0.10689324516008775], [-0.05104851053112095, 0.07175906453573168, -0.13016551351865693]], [[-0.01538074255515609, 0.059441785067098275, 0.03432143080300356], [0.11156520088932464, -0.003955675307035382, 0.1924680818802542], [0.23445098642691997, 0.08619834699292384, 0.08456971667509447]]], [[[-0.04897077425403219, 0.07503213764816977, 0.061828026594218426], [-0.08870901713278344, -0.13248368859452755, 0.16737565824975095], [-0.007213919421202797, -0.10578147854876031, 0.06557024091628082]], [[0.23127437969914885, -0.055102692146869456, 0.03325796634225787], [-0.17228456980312948, 0.08172583051172333, -0.04112952515100904], [-0.14510722691881286, -0.267357940846404, -0.09948404550661344]], [[-0.1592806053289208, -0.1834563192385652, -0.03509692731044828], [0.021187954223198163, -0.061987686179304786, 0.12748151101764676], [-0.11888661352810731, 0.025872271829410376, -0.16038785784548695]], [[-0.05305514472263711, -0.007391640732335962, 0.06934973543488326], [0.19083575265250802, 0.15094554762361642, 0.16509003890671678], [-0.00516172628479325, 0.05548695904894816, -0.09526599541753877]]], [[[-0.09869658280537744, 0.15044708499802387, -0.059431127955807524], [-0.03593621608454044, 0.049625736949340096, -0.04470882134088372], [-0.08955684881800738, -0.046951303198319604, 0.08130240526652605]], [[0.07277067332938447, -0.07040965745679546, 0.15358161705976872], [-0.0411804783158668, 0.27273280519759413, 0.1231786519463722], [0.24948380468575698, 0.24261856022696687, -0.009404542636278825]], [[-0.0023122682527816412, 0.1783275301449178, -0.056107117350061374], [0.10776944676418386, -0.1501862147690199, -0.12559745190972302], [0.10364303298954655, -0.18714407875906303, 0.2718842915831339]], [[-0.04391740127157167, -0.02804013705283262, 0.05329115136907939], [-0.10820831229573068, -0.04287675459851805, 0.017826173595466035], [-0.05883199167986909, -0.004873010689612276, -0.1843254949722792]]], [[[-0.010510353240324774, -0.006202659684914319, 0.00978709296218351], [-0.10640445686987055, 0.08052681113341272, -0.03258533256895358], [0.12132089126783219, -0.09422249550993561, 0.014748674476343766]], [[-0.02593873185749859, 0.09916948174564544, 0.003404934620241175], [0.14603788811469326, -0.043664968123944034, 0.04450436412696717], [0.0011610269238316177, 0.010810303600300377, -0.10952644084298223]], [[0.014830094539452368, 0.03334635993396656, 0.07857633272250637], [-0.06585902987973734, 0.053560914842094645, 0.0336247295737424], [-0.07122505885464141, -0.039988694734483556, -0.13854598596373857]], [[0.08218948155802491, -0.10797138413027163, -0.08447734268110127], [-0.05213674889468932, 0.012711845049656926, -0.1142630769413762], [-0.04670669379608009, 0.0931026302290841, -0.06538372999608967]]], [[[-0.02244806327432645, 0.11648866638873645, -0.08826320206133775], [-0.0028544779799717485, 0.015778886267295095, 0.09021089277171171], [-0.05848691965391428, -0.08041052072761364, -0.06330171832991925]], [[0.12476467202878151, -0.03616426032347053, -0.042392057029300476], [-0.1651620707204019, 0.16346284882421264, -0.06782117801521814], [-0.1180766627927717, -0.19205658645571394, -0.14397080767459608]], [[0.017058323240516263, 0.08101250627207982, 0.06954853794488867], [0.19233649382022652, 0.047601013014598265, -0.04845515595130339], [-0.17266175167643122, -0.02421307577290362, -0.04699843193352547]], [[0.16085492752852257, -0.06102421127537865, -0.06690169234389554], [0.09004989200265975, 0.021212865749686446, 0.010374838744005665], [-0.09807408076285248, -0.09402531504337147, -0.0062174302475160904]]], [[[0.13881846148345295, 0.02779242910412737, 0.09532306989759884], [0.0770162334913292, 0.09342889833696343, -0.023320361543979207], [0.026573998506159113, -0.051240911943756726, 0.03542478422292952]], [[0.1925458824839536, 0.12306183333862741, 0.026710478382676078], [-0.1828662972799003, -0.1210390119049171, 0.17338478845317612], [0.14534853634522907, 0.10823781794114258, 0.05358592617768636]], [[0.05679534038122448, -0.09340414640156405, 0.00749479891741067], [0.06985046316521894, -0.09172342715378487, -0.009636428648602272], [0.03404055324358679, -0.16048044124229485, -0.07581060488476785]], [[0.0920281105850153, 0.1054352724527274, 0.06808544102719412], [-0.1289045228851949, -0.2586283960861214, -0.07501840632993002], [-0.017459219760979007, 0.09810130110200002, 0.09625106597225697]]]], "cnn2_biases": [0.00923812203055454, -0.39853208537750745, -0.004763026939593842, 0.034319232932473645, -0.19825270687694446, -0.20157333015915302, -0.004657742414529287, -0.3744719574923206], "nn1_weights": [[-0.013645460340674648, 0.012851935972050376, 0.09789273099674332, 0.12287504340704716, -0.0030576987951162985, 0.001457176919129361, -0.1426488538979769, 0.01079808693505374, 0.05322372649171198, -0.10467638529777228], [0.048616736246436386, -0.09887817517460479, 0.1548473627553121, 0.06319368987259157, 0.10834533952157308, -0.07254381619515811, -0.10481003426374573, -0.15681228080187407, -0.06018654371282171, -0.06475123244607689], [-0.0016513542842920604, 0.1884305590142284, 0.034994911331651675, 0.06032655583583962, -0.03669254618104152, -0.146808214623773, -0.1263976658328321, -0.08400273291943239, 0.18840618963829553, -0.10683739469335378], [-0.02212227649745991, -0.06001694561453766, -0.03940894211149404, -0.03775241988544063, 0.19940026597791338, -0.06670893102541368, 0.03925431694041412, -0.17284786524749762, -0.026426870279217776, -0.17100727347619393], [-0.020219002235107107, 0.03393757491626776, -0.0613184443136243, -0.13000285610132484, 0.14605612238817173, 0.1389976168773651, 0.008556930887030502, -0.07757762645825939, 0.0964403923711055, -0.04726044318921711], [0.07213987183765797, -0.0007554526566989719, -0.1042213903392499, -0.03063754328982646, -0.03654067395783013, -0.09638565380176502, 0.024717964750738532, 0.04470264181543738, 0.12523194555836423, -0.03541846173041276], [-0.03179841565778288, -0.2850009440896841, -0.09029012385846882, -0.12091626214064195, 0.07589847395657877, 0.0014865379991626057, -0.031167710326254063, 0.139222099730767, 0.12295659665476065, -0.04766734583821661], [0.04792877169667852, 0.05093608728815243, -0.012296827872933184, -0.0699093300889083, -0.3928280054709241, 0.04688464862765415, -0.13500563034428187, -0.05194399808576583, 0.010393148284860074, 0.23713433105092677], [0.03840142520868119, -0.11681510116292744, -0.03137032967064899, -0.03281606196587523, 0.1138942983518888, 0.018098981538538332, -0.07587840671030908, 0.03416151118806121, -0.011805182481620996, 0.03475564385817082], [-0.191395316769975, 0.07635664992717109, -0.16634725943446915, -0.09945555709308872, 0.1559708459178869, 0.2026842934533206, -0.07639183232049715, -0.10505821222456173, 0.059142308807063136, -0.13765734949491126], [0.04028633553629371, -0.008360707264844664, -0.03605757860023095, -0.022848290910211122, 0.02638233364028994, 0.101849148857464, 0.0777365704774153, 0.03246647593528469, -0.013863286036242936, 0.0862959654985623], [0.16682026038465475, -0.021635125771269956, -0.1615316920802286, 0.2403780540357343, 0.024829930437020014, 0.013178267168948368, -0.16350000933527617, -0.16288197355086154, 0.033675751659231916, -0.03742529151722013], [-0.28428258441860704, 0.13744298438757707, 0.10417432649056259, -0.059213168293243364, -0.10542881187009102, 0.039669576778339315, 0.1354417340597572, -0.027798914806687666, 0.11422797565163208, 0.14034718886483252], [-0.08871510801463293, -0.18014893893375056, -0.0948282468770503, -0.19707091821265763, 0.14525194880174222, 0.06948009887900318, 0.0565228224703339, -0.05751920277196351, -0.055043363787835246, -0.002165982511231218], [0.0732969528583452, 0.2008594587616256, -0.20867671681243116, 0.0619468323093033, 0.0026637873792659727, -0.03543342644519588, 0.10964230923966364, -0.09269862530369856, 0.06758732219632038, -0.12129190192740819], [0.03466227671618135, -0.18101464365982622, 0.1854269298689295, -0.03804105093276283, 0.1612128848907717, 0.06847540833616171, -0.03150869192899395, -0.1318727316663472, 0.08516382314086252, -0.003937065186772851], [0.004007751476571404, 0.06291893373643039, 0.20295254818792738, -0.07912496096661167, -0.028158921460496675, 0.11889227434229356, -0.019714798009134032, 0.028145376178954892, 0.02368548446098482, 0.0031530069362851604], [-0.2012310712764184, 0.024142918562941044, 0.13519318618060103, -0.06951100557053776, 0.020588965524211862, -0.09243567775749024, -0.04950957417258355, 0.06632101722572488, -0.0033937739370652094, -0.016135115155129352], [0.053986324183848834, -0.14605542513577663, -0.001256734828826532, -0.020264088672832064, 0.060690622172911816, 0.08332692210399606, 0.14110796057050007, 0.1068262728711963, -0.08191255087032985, -0.11874502330552873], [0.049860661468565284, -0.029944109163905035, 0.10822399105022017, 0.06203319630575563, 0.045306453766585146, -0.04230251158147167, -0.09944437301561065, 0.06401407959798396, -0.0142783867794113, -0.16306330241631103], [-0.07436258317556442, -0.042746678708417515, 0.043112096655558464, 0.23441160836211378, 0.10246458226773032, 0.3355527727075606, -0.16071081512395788, -0.13447909857924178, -0.020655181892295604, -0.1111366079554822], [-0.040741422944042024, 0.028536903673956306, -0.004011406794757868, -0.12686928648871637, -0.1308778051595783, 0.08974808942215715, -0.10978803034208985, -0.04492967496551404, 0.10424931530765522, -0.059022369388714815], [0.02743813772730079, 0.13462702178852606, -0.08732116376714129, -0.034232135319084214, 0.07205724390842506, 0.03105207698901833, 0.04687538071642473, 0.07477699305503849, -0.09796667052977895, 0.04146757670639395], [0.018763183067180715, -0.13359942862382168, 0.15798673646877653, 0.06106461637525125, 0.05957370821120176, -0.0029613324857946867, -0.12711984208856492, 0.06923336455766965, -0.12548969661336606, 0.00678603461630438], [-0.0985264053555449, 0.0005919167989326452, 0.36373971184955173, -0.053418262979671394, 0.014349260906782626, 0.09609897807390985, -0.1563501736397528, 0.03684868556229854, -0.256550476904863, 0.00701539019153167], [-0.008298335937384323, -0.041767789976575875, 0.03303324222805492, 0.04026150240717449, -0.04186973898812192, -0.03154686382269345, 0.07614243514552137, -0.20998373338995388, -0.08558884830333434, -0.0077120602501907914], [0.013697057500492493, 0.02672903053293687, -0.1286118335903136, -0.09652288385433597, -0.10815600555255056, 0.030977755009829924, 0.042567642328898106, 0.04717946274229173, -0.02145309573388532, -0.20598394841224243], [0.02192103765706915, 0.08667598706617843, -0.020977889140091154, -0.1180038303529591, 0.0568030509167058, -0.09123975354523726, 0.07353564412350985, 0.0006595439826993721, -0.012367536790232897, -0.19384267910897804], [-0.11812935100663831, 0.1711263054916348, 0.000646233573161459, -0.008433067462518703, 0.16605999205425534, 0.06278409053831784, 0.05350579008701342, -0.17716486109861104, -0.2276674565132514, -0.10218133874248508], [0.04060863704622061, -0.17456685397276897, 0.04315288569083251, 0.007834947437520154, 0.018613149225097218, 0.13269579116653615, 0.03424285431310821, 0.10206446730537479, 0.1956147520927477, 0.16673472263330305], [-0.020821846893293573, 0.08892878292039302, -0.0019670976392007636, -0.07114999231743528, 0.0033147181947082577, 0.029957558894590827, -0.052248723849569786, -0.08278782338644691, 0.07879200483860867, -0.07727320227311425], [-0.05036143428953441, 0.03629926024989216, -0.15845385177025825, -0.030008922620382735, 0.23257277090648523, 0.04364051842915162, -0.03654418330200616, -0.01878368665281532, 0.13258326738762596, -0.08455653925720191], [0.0750412617179023, 0.07587937817105955, 0.06472465138818274, 0.11477824050173423, 0.2905328779871294, -0.11007326326284078, -0.025561257689391437, -0.04665042781066142, -0.13885629880498246, -0.07852046402010975], [0.2219786956937057, 0.049572162666509614, -0.002515382692449378, -0.10917019785219209, 0.018203081856523303, -0.15730745159211057, -0.25278869048839275, -0.0450686106257965, 0.035164884006724406, 0.1071572775399164], [0.1910020193294595, -0.09909291318629483, 0.02499659522796089, 0.09504748179544331, -0.08458914462708189, -0.12954186875910817, -0.1612341036910818, 0.04778252399797422, -0.04062996072617859, -0.05749940479963948], [-0.03192091605346105, 0.00568345457469922, -0.1365208361949904, 0.07475579599093359, -0.018511046705280376, 0.04741429540376368, 0.07166019361461973, -0.13414273490348383, -0.0714190791152613, 0.1608991101943171], [0.04424403599637448, 0.034865519081498784, -0.06955581396791567, -0.10452599882109842, -0.08329927985891547, 0.03175795433883451, -0.0404391887668169, 0.039919549541065774, 0.2301037386975452, 0.015495016607532327], [0.07279122395064583, 0.2897960530228973, -0.07134232256679959, -0.005434130794471628, -0.08675554779257277, -0.08001511357648164, -0.19972218121047322, 0.16123539809125467, 0.025958992899610445, -0.08247878755980395], [0.1578645444329263, 0.11788605237014495, 0.12363358005521584, -0.12230280961896847, -0.025477785600949925, 0.03739430502594795, -0.15829772987324336, 0.11684443000878822, -0.13017569851058264, 0.05901620470397738], [0.2591087141133856, -0.07462772011658803, -0.054729812653576, 0.026134473320495222, -0.003446370825253726, -0.20372939220034625, -0.06482902289916742, -0.0631463731089611, -0.01586577457414956, 0.01841214453207986], [0.09637040073144945, 0.025225838912989438, -0.09738046653009401, -0.05111748787873579, -0.05531407957713016, -0.017052351158110546, 0.16149737945190823, 0.09884597061743772, -0.10976188041436334, -0.06401258654460333], [-0.024521611726235504, 0.05251391056495437, -0.000586350833610703, -0.033642288456701586, -0.008153542624205477, 0.011096211537194506, 0.16791669296726122, -0.15540192278213932, 0.1303158797826787, 0.01667255879129349], [0.028848447517841786, 0.2159819501291546, -0.01659367240730659, -0.01256368567735468, -0.039838755364580335, 0.07573941948968553, -0.0034536605013481053, -0.1216406151559694, -0.06257344874078223, 0.08548774607590727], [-0.013875840349920012, 0.10193240993621915, -0.152601530983387, 0.26270204381385026, -0.05466641572677791, 0.03421607083142772, 0.020835077974896667, 0.022915777222397363, -0.02149584667096567, -0.11227151004820812], [0.16381201851989508, -0.048149686724738315, 0.0030468375531842676, 0.058638656181646376, 0.05992878080966027, -0.09313383897483686, 0.057617914055199095, 0.059446981505487974, -0.026873346035169023, 0.07582848879629109], [0.21156788678239158, 0.013841083267017756, 0.0065304511274600005, -0.14988845153876323, -0.0733815579097355, -0.1486625626426319, -0.05596750227461124, -0.004168747848077881, 0.13638389259176373, 0.006108562791166416], [0.0906994009274614, 0.08893760616704986, -0.1128403198465184, -0.08874294556179581, 0.04024914856051895, -0.14603521569023623, 0.00931489859515441, 0.0708196614183648, -0.043584425079981046, -0.03371728177293538], [-0.014120405283595112, 0.17260083267233836, 0.008009191677403257, -0.015916714123204733, 0.05545665693096874, 0.0038610142010889713, -0.10359088670973689, 0.08810120607446068, -0.10676058605715022, -0.04494535914982461], [-0.1262109523860773, 0.009081233973250799, -0.09917203493729257, 0.036796089812083675, 0.1652930909641282, 0.11444157892387506, -0.19517646959467866, -0.007951742391215166, -0.04107352871277157, 0.07007478578593498], [-0.062307573550757715, 0.05079714801815469, 0.04103666854188931, 0.05310825118981361, 0.05477469270200241, 0.09569213147610096, 0.01292338399877788, -0.13338961414660033, -0.057778040657418754, -0.03372642749756798], [-0.12076722156065943, -0.022130665588733632, -0.07156681702084072, -0.09414574906247464, 0.13535635775517676, 0.09254514838879793, 0.05989761336837675, 0.030927791399790183, -0.12560828308435415, -0.02312500051753476], [0.08601661281445357, -0.007314209288948502, 0.11098481031675939, 0.05502843002645096, -0.03177875158902357, 0.10254340491578053, 0.11733914435515483, -0.0144290690169218, 0.044098927699431315, 0.07686645076852003], [0.00430548188217905, -0.19431696864821485, -0.02682074252416053, -0.023704552912670922, 0.05686012640749402, 0.018122730312879448, -0.025154955489639336, -0.032993418724257255, 0.0035503331540345604, 0.2136118937310123], [0.13325680306142307, 0.08185369446852366, 0.11873089836526059, 0.06761533832945804, -0.20208364706039839, 0.04078339329334678, -0.0809875260494558, -0.011856358801356378, -0.04450270940903666, 0.08451534889706289], [0.052229965881948795, 0.05336709392451328, -0.004172097600496121, -0.017173836332263485, -0.05065271901663468, 0.1918737658179258, -0.10825337379304324, 0.05156444763512063, 0.05198202529271497, 0.13282932091173208], [-0.005756772024807302, -0.04194990946016045, -0.033676284768165865, -0.1786071357007536, 0.008360605712932892, 0.05020282530443471, 0.032721368975281086, 0.09966059339594924, -0.07921210922216752, 0.14851633596847058], [0.03139680737174713, -0.14306459214673878, -0.008581369374867514, 0.011365915735810196, 0.19376789483068035, 0.056120414135382705, 0.05746357805773583, 0.08870372898089844, 0.16598984605637507, -0.21449352958501125], [0.0019908541882870967, 0.12804922556291873, -0.10687937583886221, -0.1775743870192502, -0.050074418236032016, -0.17744150997402658, 0.018969926824889446, 0.14801543430093367, -0.1333728568093953, 0.052595933470753246], [0.011318704386800368, 0.044675190325843724, 0.1453602637567697, 0.058476792031549, 0.11037293457124916, -0.029229988163800538, -0.3079048728480508, 0.11074636554637791, 0.06666597497711998, 0.09745405402806448], [0.07582405106857111, -0.10377114591930356, 0.03366344281163403, -0.03419844556370431, -0.1686542167975056, 0.09176175892589947, 0.1825629399017211, 0.0779594729324906, -0.05156805355398439, -0.2516273550301774], [0.1844279648078053, -0.045345227478533416, -0.026475156102743275, -0.1953854443735668, 0.04589268555571826, -0.06960261938619554, -0.03827658882187204, 0.03388095255652156, 0.12008770116690895, -0.07636830128681636], [-0.0802364840449222, -0.03255809750277536, 0.0260417976642194, -0.01667590021119323, 0.001926501597392203, -0.05186624386987365, -0.014721648625504763, -0.03848934070985216, 0.04688490848909824, -0.11067134620419228], [-0.12273333870370498, -0.06378083169556892, 0.10485173687976213, 0.08565826150990792, 0.07044473114903206, 0.17751044023559598, -0.09796103021603547, 0.023636760999572345, -0.08028150031632338, 0.24748949621568267], [-0.13406939560587589, -0.16447906088873643, -0.013940076333185029, 0.09497739687492066, 0.016672212439057674, -0.13346961696299356, 0.3169103558873328, 0.1138308858040457, -0.02426402937139319, 0.017353753463966833], [0.031135302513445613, -0.04355562557493752, -0.27201937120484776, 0.13624978484765493, -0.043789310874011125, -0.02427893095127698, -0.0354448255778545, 0.2146135062754761, 0.1454246245811901, 0.05223355290916927], [-0.02594344763882018, 0.026361005422958852, 0.0728504521509966, -0.007565700616328212, -0.0037164332800405176, 0.010777192240062648, -0.07917774043825612, -0.13461816022830336, 0.1315350378524764, 0.04995684052841198], [-0.02319417578672221, 0.15463078497703697, -0.02718579064203259, -0.13756488343234258, -0.009488459068857162, -0.07602161053468133, 0.06759447805401697, -0.15409568762189915, 0.048203556360436, -0.0035924561944506083], [-0.18705729864019283, 0.05566868522518889, -0.11012745438240643, -0.0427866742185727, 0.029639668379810663, 0.09007639036120749, 0.03838772593569961, -0.13271860414353767, 0.09362643171873887, -0.04156747543343558], [-0.026892065819612076, -0.1611584299588319, -0.05975355441810948, 0.03418216948076735, 0.15510848621734452, -0.12903672904551808, 0.07072985669450188, -0.09216392191636337, 0.008933021250043234, 0.13911299170707997], [0.05125772484594691, 0.05545334326777429, 0.20655502007234308, 0.006700083029021122, 0.04595926808723153, -0.052939549469430934, 0.07137360079062212, 0.003215040066697088, -0.014126388931212062, -0.06277555854416109], [0.028087890373957303, 0.17888373754226045, -0.036477160931686174, -0.002979504906856413, 0.0017236909839114063, -0.174168475803789, 0.06325011897113512, 0.01099299275302688, -0.15165484208477586, -0.016458069320973833], [0.2030714086766059, -0.03151912094714907, -0.04274728111827471, 0.17067483934459085, -0.12781635316417855, 0.17650920777601325, -0.16663259530210373, -0.14700054360320366, -0.03488500715317185, 0.01870880742906906], [-0.012233961473557734, -0.007884916575492352, -0.08260893255472535, 0.034292926903196304, -0.06815210961250875, 0.08596844217578976, 0.07649502043968384, 0.04043755003157895, -0.015872859617484913, -0.05446588393713802], [0.09539716050534125, 0.06892861907972987, 0.13696112803300067, -0.007445997658986531, -0.04134776859283605, -0.08681384150534557, 0.17325178118931778, -0.023897339288504352, 0.030591167186904702, -0.15746911449912118], [-0.0653799584611227, -0.007848405343545979, 0.12429534300083145, -0.1711943823646359, 0.05136972713407587, 0.02890253985416561, 0.03342815743220404, -0.07122209032269852, 0.07765415638953253, -0.008558198904403553], [-0.1371512690200831, 0.05541534598741477, 0.04591424706094741, -0.12833901070680828, -0.08302427805981717, -0.0032893288823703736, 0.1697103248476004, -0.008016580374317987, 0.08170882189712245, 0.03145708843225731], [-0.10656178912708741, -0.13097493775789568, 0.25425490202039863, 0.1253511197871624, -0.08408473745568233, -0.10874933275536505, -0.12264332412316875, 0.2557505142727421, -0.03914039146527692, 0.055697030329723944], [-0.18521898420267596, -0.04443578472508486, -0.06180818793972274, -0.12155433464427735, -0.1268126476920853, 0.058383898824480994, -0.036182784222448444, 0.03496065773737361, 0.1427301119058801, 0.001492797757233411], [-0.06802098393792512, 0.08299191150629813, 0.007131729476330523, -0.06651656076024644, -0.05852059104650763, 0.05019612957588117, 0.14204954966448238, 0.08956947519841825, -0.08822534579323643, -0.041549173526265526], [-0.17053808822714428, -0.0429292684822368, 0.10303758096121104, -0.07674984571519254, 0.013353235536725861, 0.02533831561682964, -0.01891856882034305, 0.12347488863615456, 0.062302644041402046, -0.11531885628168859], [0.062442190700900436, 0.0825133354916384, 0.009151198149040043, 0.25410917848068815, -0.06756090176713535, -0.072804550429509, -0.04126973727243659, 0.02169066083271004, -0.03014663499992173, 0.002769844262157064], [-0.05300057353506566, -0.10389866223487489, -0.031068595158822685, 0.2596326023643561, -0.08605051646737841, -0.07470077763491136, 0.08152138398815728, 0.17849108694240387, 0.017526439552411906, -0.1404630450296594], [-0.213404819352172, -0.10225850325908385, 0.09017241091676804, 0.048485325473938704, -0.22161118422070122, -0.08784062427365925, 0.04547215226524035, 0.1079587937113448, -0.09853589945560622, 0.03240009957793123], [0.06171211738098259, 0.04767061293366602, -0.008663599437222258, -0.16178054652219384, -0.15745128194181998, 0.3371162349540832, 0.0788899055453371, 0.06851531746951954, 0.009283182512047652, -0.056930856668343646], [0.019328137166306828, -0.09862826913972036, 0.022375611207406835, 0.13585580564109187, -0.00539038869269692, 0.15778183260634482, -0.08104916871437248, 0.08285736843174181, -0.015892233625654475, -0.10929822937247341], [-0.11776760766453287, 0.0655235398502919, 0.281780473918361, -0.00798242277096107, -0.058225348898626454, -0.01580648985820796, -0.11713648963140084, 0.13628545059373356, 0.08708641787634633, -0.0799905319092922], [-0.04854755383665889, -0.04037996331913703, 0.029483031935214045, 0.0017405678244761167, -0.05831767527122472, 0.1428406048261899, -0.07762157834712795, 0.10719537595914781, 0.0005586004689919954, -0.0826349584462008], [-0.028812492594836595, -0.11692075210881633, -0.06962118843993217, 0.05275854078720336, 0.07453793707382675, 0.09318855413558094, 0.10079661151260944, 0.04603552517993614, -0.012245179821221511, 0.05650612693027809], [0.010722639503839292, 0.13729762629969758, -0.02852941376669349, -0.07205790485604491, -0.15681680045133448, -0.05768625848807728, -0.023010122065629687, -0.02893299185411474, 0.07888233922584748, 0.041737585405225645], [-0.06562672885685966, -0.18761458787048843, 0.05122442440032475, 0.11201130959355018, 0.0047724585653286895, -0.17656530756329905, -0.1062628409200892, 0.0367088587362438, 0.10713557787992176, -0.002940093714427849], [-0.012922618674058105, -0.013280951934004293, 0.1479965657621301, 0.011642163099799464, 0.02349008112119723, -0.09830182244374978, -0.16171310124703486, -0.04357714350955006, -0.10778368024167781, 0.005561253041563485], [0.06047056211417348, 0.036650374072377076, -0.02243699248408507, -0.026019795500496355, 0.19091817263052505, 0.10127862442594686, -0.07835810326145436, 0.013138801271241264, -0.16328838234764861, 0.18691183595297187], [-0.05697911915500174, 0.22865562709994178, -0.007568094538809919, 0.09010051839336791, -0.08545734133136643, 0.05437053027596857, -0.05477131958348587, -0.28033014945775736, -0.09394361786820572, 0.13242790385043235], [-0.11407638528575492, 0.010217851202402721, 0.0036568841835830776, 0.050853696002070216, 0.16976475825316853, -0.029649248078972575, -0.012732854808391494, 0.025092245979527222, -0.06212793381688689, -0.09177586125198703], [-0.040889605218333694, -0.07408945593667221, 0.05445328938196094, -0.012133756247178967, 0.043578631618677685, -0.13355032498203198, -0.0021984482554608335, 0.03641229077775902, -0.15120559240679887, -0.09997822337367915], [0.10934603460779539, -0.05473981666948266, -0.006559311862490453, 0.07807803467410905, -0.06695182702146196, 0.15485739216526528, -0.12713865089355234, -0.0416060952488256, -0.0677391866986791, -0.0876956878099623], [-0.0502367466720278, -0.008129704181396864, 0.07209123597514022, -0.042493567150304556, -0.0007726151921384548, 0.04805555693520318, 0.06742681897273081, 0.051771405639063024, -0.0581000494578925, 0.18876547734010848], [0.07607377756496304, 0.0844195532281406, 0.09932870826952508, 0.07692402193294952, -0.00423345993481489, -0.07696900274487033, 0.11187583952833328, -0.09189322254880786, -0.2050472413837078, 0.005871710013622395], [-0.041191594304791905, -0.12780679105543227, 0.06450246287685242, 0.1506022485676241, 0.03819665161858764, 0.027824288204362665, 0.13097559626305724, -0.011058552706077135, -0.016568352995206155, -0.055920592555717935], [-0.11888365454763648, -0.11352271165470713, 0.11391093337141227, 0.011591359154543674, -0.16319641791330192, -0.04864771016598727, -0.059137898068012, 0.02188375936714831, -0.0992215570164268, -0.08687669829106104], [0.010823348850276278, -0.08642706285393352, -0.22843747490503247, 0.023639008909487034, -0.07461189065230238, -0.08790435571231711, 0.09833926015075682, -0.17788580626304187, 0.10715395354862131, 0.04881332856018587], [-0.061844511953981385, -0.03951967848910794, 0.03701620956553335, 0.13224400878005235, -0.10240074018919043, 0.014664837446392633, -0.011776871884891862, 0.03512925975709147, -0.010744659382341608, -0.02868572784877992], [0.04904395589564839, 0.12679758097529212, 0.026826365889599135, 0.010676043785476829, -0.1431248255399155, -0.02225363039962204, 0.04147964092456135, -0.0074018343534306575, -0.01259556890718853, -0.037934343313199316], [-0.05571013021939655, -0.0001378397731279328, -0.07276484676758975, 0.11072862303373247, 0.055302963483421626, -0.07853315991661351, 0.12293368139230407, 0.005139309080476136, 0.04851686967036512, -0.06320266189814237], [-0.2137871320829234, 0.11065374954436753, -0.06568774165843105, 0.04217686175494331, 0.19877311655778362, -0.07767698017279927, 0.05791296760797181, -0.0346098307851332, -0.14098245225266354, -0.2464054038575994], [0.11880983975513439, 0.001045993712846602, -0.10845934614672142, 0.03145150521533729, 0.0667920936563187, 0.022644795644221314, -0.08501748486101561, -0.10030164229462982, 0.15070029455218778, 0.057464780951620525], [0.09738362867695524, 0.022672562014003507, -0.020557754414715686, -0.08049559787432221, 0.008493008274620082, -0.009935091847108694, -0.041932690905263414, -0.08815771066199675, -0.05431687884282758, 0.2952967078400821], [-0.012124226119110883, -0.05201716576750285, 0.022956379154149817, 0.12870384557974268, -0.005674793622269859, -0.15878981111107013, 0.09302362034077914, -0.11262439457690744, 0.06777810286787311, 0.16363450240816446], [0.07743132375676824, 0.018698204201805315, -0.16466260398075055, 0.07174120204596697, 0.23133306732496842, -0.22761768371820823, 0.08519685497478342, 0.016143859195749632, -0.01009306406847543, -0.14173402565103205], [0.08826777375042004, 0.0002965558660389319, 0.13253981108040064, 0.10530200708696791, 0.11558665973811827, -0.19395290277267985, -0.07962326085909253, 0.05575847980074912, 0.06998846364467565, -0.07055198312701833], [-0.2004362221437308, 0.12961922913534932, -0.10606896157375312, 0.054296865660749226, 0.04926932152889024, 0.011841475529755495, 0.015058203564706236, -0.08580449339119746, 0.11794835569448289, 0.04268600841177043], [-0.0161963950788939, -0.1215727691982569, -0.047010719237282214, 0.08741714582301134, 0.03980427305258355, 0.04714076220660621, 0.13023914023623195, 0.06171314604549152, -0.2366251884023042, 0.08211613522124957], [0.11106633744002004, -0.1330442787473837, -0.07186415237916187, 0.11333248520919273, -0.09818716820929893, 0.05788485290177906, 0.15019840837060355, -0.04394687517916404, -0.06090901055849084, -0.02461714437255985], [0.06907192981506496, -0.12408940205536871, 0.08972198308607186, 0.06504016290594707, 0.05642480956868795, -0.2485044409468653, 0.14402733883742702, 0.11731661244050716, 0.04314568138252959, 0.06115003902527973], [0.11308465870618145, 0.12470890611649432, -0.02282689922823203, 0.005773695224949153, 0.02545408273916791, -0.22018569305484773, 0.014787962964744954, -0.0725264246388343, -0.027933166749365225, 0.07578266093006686], [-0.04719013736754358, 0.04109331127681708, 0.1529898316438192, -0.15733390368089642, -0.0551845941870565, -0.04208265425618425, -0.08414461699887206, -0.003420197511506022, 0.03748026970183795, -0.06496288328970441], [0.0967197897555273, -0.10807970305050367, 0.0839204283202212, -0.36042478764787106, -0.03712993151562117, -0.027943386008596634, -0.004667452742828726, 0.10253845794350094, 0.24388639048618885, -0.0721328138300629], [0.012145126406126694, 0.07175112590320656, 0.06189423293583801, -0.1626650393232404, -0.0759866573709593, 0.07356050411708268, 0.10610793512767368, 0.055569828444949336, 0.09430800989351792, -0.016834862405423832], [0.08893300360930233, -0.03676129533513584, 0.012043225826369248, 0.11083650783806005, -0.009422722450742682, -0.007584270022973409, -0.06115260547821102, 0.07195277513701272, -0.1262145530202685, 0.09983688456263147], [0.13620727639048866, 0.12030083281177988, 0.04449592238493924, -0.09864554216386737, 0.07650025080773101, -0.08163704532948804, 0.03403696482110906, -0.031285986706127304, -0.05076884865707106, 0.13182296116755252], [0.02890401629339034, -0.045944489353080306, 0.0415953903429991, 0.011793427455366073, -0.10483746487080847, -0.11034550172805364, 0.0006120181439362724, -0.00677143564014433, -0.057641312918045626, -0.05619090305537005], [-0.09471385313246618, 0.14506233895851317, -0.006990092539039135, -0.025509011780101305, 0.04148191408407865, -0.0732298714750041, -0.048481340018487556, 0.09971000817419098, -0.004703528758802532, 0.015812922662704954], [0.04787522601770253, 0.025085251370515337, 0.0355973133431571, -0.012402033967923767, 0.11265663771315809, -0.10838848835589214, -0.058834506845389385, 0.019776092487158236, -0.011492986558599821, -0.05507186233743474], [0.021640286187214867, 0.03741607619454222, -0.13701311330783508, 0.2208731033452097, -0.06231420088895691, -0.00030008534691364273, 0.043555013357468676, -0.08447379675789012, 0.100968898018055, -0.028957761066335696], [0.0985928136954834, -0.0949000400386431, -0.2991068033399691, -0.015753537467413786, -0.02833881864298065, 0.05083648421423291, 0.09528712912533255, -0.07369463842310356, 0.02948194356855562, 0.008511358980343229], [-0.050611167962312, -0.007494116867551104, 0.02538468326974244, 0.18522970743096756, -0.09820662229382814, 0.03554333125728601, 0.16939792873812076, 0.058688601343331315, -0.12706542182603306, -0.011684434835337402], [0.06667894673800522, 0.0540435097507047, -0.11404505534810837, -0.025609498075885213, -0.1306170575282762, 0.19721711964657346, 0.17657545324666235, 0.048005396608643655, 0.10670596346890611, -0.03109505742541867], [0.2600492071680535, -0.14875092840533508, -0.034404206150105275, -0.07985943915630926, 0.2914508718611132, -0.1319462271724223, 0.04203737723752071, 0.16108553303761897, 0.022034922816465435, -0.12199821483383606], [0.006041667754712579, -0.009558718786474102, -0.021235188078675166, -0.08533273625787507, 0.15916680350105394, -0.0030387708020822176, -0.19059765222842573, 0.07898365285404486, 0.1483850848128023, -0.008269452131539288], [-0.022340149712728234, -0.10200095357768922, -0.03262487831020483, 0.0702490295672747, -0.02207953834560225, -0.026836548664555676, -0.023801106857452667, 0.08232060414277259, 0.02528159527053205, 0.03343581281285185], [-0.05316455438686604, 0.11864890656121228, -0.025854937548217174, -0.05880294163199006, 0.0784766710241077, 0.15567718021828258, 0.029973282321424835, -0.12819185843670045, 0.036801377270003266, 0.08986693998352387], [0.008698337568383485, -0.15097728036189273, 0.1474760168779494, -0.13847820603041316, -0.023862535307773217, 0.07691154745881222, -0.0333689374046937, -0.031024010709938432, -0.12106449265588688, 0.21300858507879705], [-0.07324459682709406, -0.12302753336008324, 0.052692797255276584, 0.22307462134716183, 0.14658178135112723, 0.15397159346778413, -0.1365047277565011, 0.12806891140529333, 0.01852104672574155, -0.06206730164903419], [0.019777958505091345, 0.1091232305459976, -0.09523012912429131, 0.23663112077823328, 0.035017199443312046, 0.016525806648326452, -0.05716059740341466, -0.017561206995182876, -0.01478231101287304, -0.05865786434361808], [-0.10222122346063524, 0.10907555194020155, -0.024495128923630163, -0.039662394545579266, 0.012687997794908508, -0.1264315849545594, 0.23858448333866816, 0.08526773120030419, 0.09464741140667603, -0.06859145356881104], [0.11639610582952874, -0.04953963010508188, -0.13671019830199418, -0.03166098312375832, 0.017590090945641422, 0.1031737023317255, 0.0031469627757125945, -0.025606630737216026, -0.12498236666247234, 0.08049555686286708], [-0.025498357629774916, -0.05005081555186777, 0.03760595175097873, 0.046593069108342426, -0.012792781915268395, 0.17899732522820244, 0.08304038814130685, 0.13008479999067904, 0.20905268999209717, 0.06282921231764148], [-0.023618660742460964, -0.18058636454303456, -0.04759967361186712, -0.0021352787608687252, -0.08564374572274375, 0.07256576425708824, -0.04646520299538166, -0.01835677121938452, -0.10164045179411894, 0.07062153225147645], [-0.0521703022111538, -0.057068448097934384, -0.10167721208798661, 0.11527254415310893, 0.10801444877690047, -0.13348145464811112, -0.033743831306882376, 0.01784109568020367, -0.01609123666137939, 0.19801286615017882], [-0.14626277458367254, -0.01721006648666564, -0.01035088891561563, 0.08850665282145356, -0.0835010563828255, 0.054668214873316634, 0.009358936247288483, 0.03848983552768908, -0.08352384307333154, 0.1939067262976794], [-0.06982968775415536, 0.1338345167393756, -0.14338775204726403, -0.1403383252461514, 0.2397366797673306, 0.007781355738847697, 0.026143575616164372, -0.128867809608919, -0.1071521880046865, 0.0790048972361444], [0.025466111822834564, -0.07888273284834807, 0.004638297007304852, -0.08598466656778503, -0.06609434927925201, 0.15778850903383476, -0.16724447846279336, 0.07719804874092488, 0.144665458813199, -0.09763412557807917], [0.03967825106075559, 0.10791946606359293, -0.24923689633170293, -0.0978444495183053, -0.06605619209939836, 0.0560200849865002, 0.1477214595040157, -0.04828036779740847, 0.0556090730478133, 0.025112336739226526], [-0.08409072402216307, 0.23774166206816916, -0.1813751191453991, 0.028762680584447416, -0.02886789578894061, 0.026615371995855286, 0.08408502226733468, -0.022395729524672663, -0.09781340704552098, 0.07382804808784647], [-0.031918515160702425, -0.03297840152781015, 0.0731586071181772, -0.11330000541685582, 0.0026913207869639294, -0.03882869336181988, -0.035693361534545685, 0.05004924202664216, -0.12029334689063706, -0.2147499799268959], [-0.02552086609862549, -0.11957030802787474, -0.23288697986482917, -0.14980428964680412, 0.0251247977202562, -0.020937747185126063, -0.029378305924717543, -0.3118375820714654, 0.24320822634357936, -0.0033440311206405], [-0.04761583716121757, -0.12779925808935796, 0.08281300297314159, -0.11175812347528014, -0.007639660277721484, 0.003899876656272003, 0.16365530973607967, 0.3034025611394989, 0.032686913584341004, -0.0005263946522038102], [0.14111150484372217, -0.14958328032328438, -0.11483451496327822, -0.005399162436930146, 0.09204632442226432, 0.08998539852937026, 0.02744278447412787, 0.16954940414404798, 0.025727676138108842, -0.04253000109642145], [0.07176332942975967, -0.05217849542061448, -0.08442348455646911, -0.1724564783720215, 0.2703641329381991, -0.1596107342316703, 0.02885787928143336, 0.0336976728584003, 0.028028314518369637, 0.09755754646685845], [0.005919963280959739, 0.04329187782099028, 0.012215044706389516, 0.10473566949162703, 0.13690075162823315, -0.0014975262712631843, 0.10986948782420991, -0.12119169136894072, 0.06499629074540912, 0.04042103462704751], [-0.07885301939160254, 0.03201940361795046, 0.009957101612611916, -0.00010831224864106928, 0.11471456958343557, 0.0590411983267345, -0.16655988013971926, -0.09106364327297783, -0.07687471680174669, 0.1463403311083491], [-0.11524322557766353, -0.09318973649855326, 0.034208193117942064, -0.009561379183839652, -0.16371409154199001, 0.022890047455137494, -0.05377293565272734, -0.008906952347214864, 0.09306965345005701, 0.1131248974047271], [0.09353330967316362, 0.0520800787060749, 0.10148576275965351, -0.004318399862077662, -0.10751796688516434, -0.19032137674072308, 0.06282736521392689, 0.03169799943110075, -0.15828832561060283, 0.14843938446421975], [-0.04428078833824886, -0.04795341456011313, -0.09223375808629318, 0.08871458073560035, -0.11869096655840206, 0.009931026395549807, -0.005040306039142132, -0.12547398842739807, -0.07916506113344453, -0.0803579817012269], [-0.012800190360380931, 0.08468829316079347, -0.0771323109002565, -0.011787374168256043, -0.05328522350671138, 0.037801454566014935, 0.23098802759883055, 0.1258265341088098, 0.048746144228532795, -0.10228053560005794], [0.055589073879060126, -0.10631860794958202, -0.16539171458881988, -0.08249683744871086, 0.12895809737603328, -0.15334821648795935, -0.11525530834130489, 0.16436732415088914, -0.0018889117301972428, 0.09403213624498609], [-0.014606269628980843, -0.03856198246220254, -0.025694753291558535, -0.12510212299614865, 0.18315238143979964, 0.05079293179506496, -0.1130581581810137, -0.17599296396328568, -0.10363982788574137, 0.027044734695678804], [0.06763443886266565, -0.03267038881203007, 0.04081837895354644, 0.0006542440004380605, 0.09788369184634256, -0.08282300550016333, 0.048990756499105406, -0.16084502916359067, -0.04657046312453569, 0.07131391624857077], [-0.016603086817748174, -0.22985306427412114, 0.05807731534265249, 0.06541772525432037, 0.189257763623173, 0.11634178115872575, 0.2797600379889736, 0.09225664250226753, -0.09733401213893023, 0.05899989187533601], [-0.10829562971566949, 0.07572711882487625, -0.13943156179419217, -0.21246242479296765, -0.036878828386816394, 0.21696213292313676, 0.1216966096581382, 0.14106975810396358, -0.1755915888801247, 0.07020246455944326], [0.04654956486358225, -0.13254986601439653, -0.10457587024402952, 0.10678688649762136, 0.05725022145129149, 0.13232996056777055, 0.11401238943293786, -0.063829974835384, 0.20467767344003213, 0.1430050714622789], [-0.16149481366208013, -0.09710705541935306, 0.10936553959624978, 0.13410937377103882, -0.18734701782803612, 0.06439215375296595, -0.06007946163113217, 0.0049358583188935596, -0.09631938614929925, 0.04245563444073022], [0.18033121263404833, -0.005219241679794411, 0.015788142900724937, 0.015040374140991623, -0.36000140673973313, -0.0414876161404255, 0.009723519753751202, -0.06438769645268337, -0.08281257970907119, 0.009767593093848639], [0.06728162007341719, -0.07639977617867669, 0.041101324762528244, -0.07480037521900866, 0.023117672500819475, -0.01129012035325467, 0.010002618519891837, 0.13619942429481685, -0.0918869925754278, 0.03738006574229754], [0.11529161380667548, 0.0604281950108797, -0.015568532737630517, 0.07802629495712726, -0.1231873210928637, -0.0674302327098367, 0.056833737643357, -0.06303647005668785, 0.16497842515285213, 0.023650099013028652], [-0.03326813028738208, 0.15907521525341012, 0.024297921771600898, -0.0903444588269302, -0.12732370583827554, 0.05774610139343863, -0.07604503192724711, 0.02907743094293515, 0.19256998240840362, -0.06078332267457095], [0.060481045135619936, 0.006967371415147507, -0.017687321369953463, -0.085830889066451, -0.0051377355084130764, -0.009335330237561033, -0.012027974517661466, -0.011366310302454935, 0.1481179166536127, -0.05572533163405121], [0.10112197020053217, -0.10375142164617684, -0.015359484409491996, -0.06108073491376579, 0.08907198099998288, 0.005460304148947064, -0.06787297117840216, 0.08818693308825627, -0.09128010627298733, -0.14079806658491623], [0.05679596447357393, 0.18941148997641627, 0.005945696581142661, 0.10107159171330563, 0.1687333846874959, 0.011940339376987685, -0.0854134133408681, 0.18572881922368026, -0.1845869730917875, -0.0116989990131986], [0.09084552736580431, -0.01866248297955788, 0.006390603710791775, 0.06411687784486418, -0.038004151523734604, -0.10837267872019102, -0.2633653838259092, 0.03767760192772394, 0.07827198980870194, -0.0006987221086584166], [0.013530626506398916, 0.08006214479199564, 0.023399189895936444, 0.07019228897032875, 0.0185331522901123, 0.06670925221934429, 0.06010004882623004, -0.04539048251486026, -0.03241399729174745, -0.06998309820960175], [-0.03834598051511196, -0.028486283945399007, -0.0001656947594175114, 0.09352780399255342, 0.16538987051475024, -0.010178080404424666, -0.017694086328383558, 0.07961073608839499, 0.17936236057892743, -0.06647598683359818], [-0.07287096932425079, -0.0012252013307419588, 0.07801980640786513, -0.02592727720089816, -0.06402548753708875, 0.025081060788145062, 0.14014932841571098, 0.10190265013462159, 0.008948460017450923, 0.1175484177999989], [-0.1877596844029242, 0.06616780882412737, 0.04204927308933078, 0.07674994520420234, -0.08129760609652874, 0.08473463043091847, 0.17456218022521391, 0.2322389744517417, -0.24014294324025173, -0.016088054400925554], [0.0007788897167833544, -0.02589070810715068, 0.15261530809025803, -0.09106321039695243, -0.06570972317056084, -0.013781903491842884, 0.10517476453080321, 0.11134298714920564, -0.16412551839369466, -0.031831254551841034], [-0.04402371498521548, 0.05047071495755457, -0.0014407968530670832, 0.108406650278439, 0.07171137964668835, 0.18276247745903035, 0.010223790906369231, 0.003913598753651802, -0.03895317909638577, -0.12177733935450283], [-0.13780505537720986, 0.1937279443426901, 0.1299885931504831, -0.026116408591757127, 0.049298745999915884, 0.08742176347313602, -0.05168000740984648, -0.21570289934522985, -0.12747937192349534, -0.01645658318398172], [0.021831260664321537, -0.12953363517398067, 0.024536098845505384, 0.07801303733732383, -0.1621059383439066, -0.033391388832742015, 0.07341354846231056, -0.2030857442930995, 0.03451283495474692, -0.08311241180398497], [0.041581527137583965, -0.11223502472653216, -0.1687575528068961, -0.1738197711948974, -0.015064297417231937, 0.1412516674604104, 0.06590652127146614, 0.021894756242096997, -0.004998704442203791, -0.12242479901056282], [-0.013913404122511377, -0.03517933198787926, -0.02755970985701989, -0.16924012457611637, -0.15137049706510136, 0.14091193000609636, 0.15185452954549686, 0.10002749925468628, -0.07415660092869403, -0.011659630030784058], [-0.014332401732439453, 0.077582739592587, -0.1854480437613199, -0.0812328642633357, -0.08992288329376663, 0.20172449373370574, 0.14792062255932376, -0.031406481145150746, 0.01812101968006686, 0.019383979560545862], [0.09777801599547792, 0.09891180540949485, 0.008587567556659677, 0.13162341015371712, -0.04287309017591065, -0.05702771662250268, 0.09987890580605453, -0.11111371208508383, -0.05009990599378088, -0.08875138489532122], [-0.11216310762896264, 0.013654662982749241, -0.0019482469533412677, 0.26133337445731436, -0.20078279067854954, -0.2189018525795517, -0.19422023696115384, 0.02913574607049145, 0.08975042645803794, -0.033794902316802655], [-0.28231631607256275, -0.06099344439326721, -0.0006619711811039193, 0.15138586663975176, -0.0899626140231047, 0.11271434618582747, 0.05673623945824612, -0.04449134088472035, 0.20390798243269032, 0.1713904413101877], [-0.03831073827531151, 0.15911993284543033, 0.048165242887888135, -0.05551545556445907, -0.043192725134977614, -0.09508969483626051, 0.08074214989556981, 0.00436648363251583, 0.013463534060588768, 0.27043811091119085], [0.08274733977223606, 0.1755786493945152, 0.10456928765300497, 0.06807234188569576, 0.07620519213367917, -0.1058014988097469, -0.18156308919321418, 0.085535510397597, -0.1409322419979798, -0.09453501302077208], [0.06511310730988697, 0.04899359935656036, 0.1086015794383749, 0.2142018639296464, -0.10094052973426032, -0.09303973527087021, -0.06295074219621213, 0.05416540198736927, -0.041965148185106306, -0.1697290415255259], [-0.0773018265733593, -0.1795924092892927, 0.09256293808128996, 0.07718795459247008, -0.029310872315236897, -0.13246798545416325, -0.021447206689372098, -0.027420615338475653, -0.10823229585300675, 0.1330914634739959], [-0.03133816512885476, 0.06711310435543759, 0.032694027422277804, -0.03276094278988207, -0.13430132392820845, 0.001741747552983873, 0.015270903004099732, -0.021181887500942322, 0.10102848672758008, 0.1286007748308262], [0.014853257226166521, 0.04272346351277352, -0.03492942401844065, 0.030677407062049477, 0.0861014564579328, -0.05851281111379893, -0.10737383349882447, -0.07193624962831216, 0.14141279791863898, 0.09262522322028509], [-0.01463902024452595, 0.12742797843028042, -0.073249897012132, -0.03768519373133142, -0.015373509281706037, -0.048297762448848126, 0.04722863831476602, -0.11865794821312722, 0.2700043106728138, 0.06545675420911383], [-0.03488860970383148, -0.05307367399533437, 0.09701044327205617, -0.02630200094867531, -0.04632289778260145, 0.01911383851840732, -0.06729823590093352, -0.05396656191117599, 0.22150318643073522, -0.07738946698320022], [0.022368599691284078, -0.2531632195511517, -0.05963610921897198, -0.010118543078506334, 0.044506959319650076, 0.04140375510645165, -0.05179147949011817, -0.07061718709803347, -0.007827634993499253, -0.0013639908885152172], [-0.030916621739968588, 0.03638503300924043, -0.1479914086217044, -0.15407664871570237, -0.09757041444568351, 0.07798129986457843, -0.023187594790951477, -0.03100919401625334, 0.0695898836617806, 0.02058716103366534], [-0.06495644234192972, 0.05108737614839906, -0.18607347576744268, 0.04292200014328448, 0.144320225859585, -0.09187666599727352, 0.1362292063353668, -0.1117996910075397, -0.1842702803231459, 0.060262537585780714], [0.0436584776490804, 0.06478601871660317, -0.06352865692427288, -0.03937832180421066, 4.851235284265503e-05, -0.21038906198625007, 0.13620839908015261, 0.16370987123769085, -0.12789763649234365, -0.07813385586358182], [-0.10720451583298303, -0.10173690769961345, 0.15132504337333208, 0.11625283612481188, 0.07045295243126751, 0.2255355723778041, -0.0859241708633684, 0.13954893302847748, 0.05054467307841403, -0.0481942935956934], [-0.17082073622305097, -0.3561809095596392, -0.12488354277926651, 0.12273852006129181, 0.1255123460831368, 0.11883231399198721, -0.05729872023979525, -0.14229184629340047, 0.2537386493387076, 0.04472082469907103], [0.1264608564265234, 0.08151966678424079, -0.029419503183042848, -0.015596024826619186, -0.04490337200045577, -0.11307797858006932, -0.10426358983521944, -0.014672635380035413, 0.12151390320374336, 0.03142135470869264], [0.013713183793796454, -0.102745645690322, 0.14862835836770547, 0.07100300781656095, -0.13116551278988117, 0.048324177587825874, -0.11642309207890635, 0.037670775591935365, -0.12435961828919416, -0.0195342669666885]], "nn1_biases": [[0.11843614698092961, 0.288985766663107, -0.006339867388639397, -0.014540266753262721, 0.06946298067879467, 0.17037647987211002, 0.028121112100823843, 0.08981029493095725, -0.026245606484139965, -0.07417984591946135]]}